{\rtf1\ansi\ansicpg1252\cocoartf2513
\cocoatextscaling0\cocoaplatform0{\fonttbl\f0\fswiss\fcharset0 Helvetica;}
{\colortbl;\red255\green255\blue255;}
{\*\expandedcolortbl;;}
\paperw11900\paperh16840\margl1440\margr1440\vieww10800\viewh8400\viewkind0
\pard\tx566\tx1133\tx1700\tx2267\tx2834\tx3401\tx3968\tx4535\tx5102\tx5669\tx6236\tx6803\pardirnatural\partightenfactor0

\f0\fs24 \cf0 === Run information ===\
\
Scheme:       weka.classifiers.trees.J48 -C 0.25 -M 10\
Relation:     HAB_1_0\
Instances:    1323\
Attributes:   14\
              date\
              sampling station\
              sampling depth\
              sampling method\
              PSP\
              DSP\
              DSP_like\
              ASP\
              Dinophysis caudata\
              Dinophysis fortii\
              Phalacroma rotundatum\
              Dinophysis sacculus\
              Dinophysis tripos\
              lipophylic_toxins\
Test mode:    10-fold cross-validation\
\
=== Classifier model (full training set) ===\
\
J48 pruned tree\
------------------\
\
Dinophysis fortii <= 40: neg (957.89/83.0)\
Dinophysis fortii > 40\
|   sampling method = Niskin: poz (11.0/5.0)\
|   sampling method = bucket: neg (0.0)\
|   sampling method = phytoplankton net: neg (25.0)\
|   sampling method = hose sampler\
|   |   Dinophysis sacculus <= 15\
|   |   |   DSP_like <= 13\
|   |   |   |   Dinophysis tripos <= 15\
|   |   |   |   |   Dinophysis caudata <= 14: neg (15.02/3.0)\
|   |   |   |   |   Dinophysis caudata > 14: poz (21.03/8.03)\
|   |   |   |   Dinophysis tripos > 15: poz (15.02/2.02)\
|   |   |   DSP_like > 13: neg (19.03/6.0)\
|   |   Dinophysis sacculus > 15: neg (10.01/2.0)\
\
Number of Leaves  : 	9\
\
Size of the tree : 	15\
\
\
Time taken to build model: 0.01 seconds\
\
=== Stratified cross-validation ===\
=== Summary ===\
\
Correctly Classified Instances         943               87.8026 %\
Incorrectly Classified Instances       131               12.1974 %\
Kappa statistic                          0.0679\
Mean absolute error                      0.1975\
Root mean squared error                  0.32  \
Relative absolute error                 95.0872 %\
Root relative squared error             99.4334 %\
Total Number of Instances             1074     \
Ignored Class Unknown Instances                249     \
\
=== Detailed Accuracy By Class ===\
\
                 TP Rate  FP Rate  Precision  Recall   F-Measure  MCC      ROC Area  PRC Area  Class\
                 0.056    0.013    0.368      0.056    0.097      0.105    0.580     0.154     poz\
                 0.987    0.944    0.887      0.987    0.935      0.105    0.521     0.727     neg\
Weighted Avg.    0.878    0.835    0.826      0.878    0.836      0.105    0.528     0.659     \
\
=== Confusion Matrix ===\
\
   a   b   <-- classified as\
   7 119 |   a = poz\
  12 936 |   b = neg\
\
}